encog,BasicNetwork,java,3.1.0,1,1433022618811
[BASIC]
[BASIC:PARAMS]
[BASIC:NETWORK]
beginTraining=0
connectionLimit=0
contextTargetOffset=0,0,0
contextTargetSize=0,0,0
endTraining=2
hasContext=f
inputCount=4
layerCounts=2,7,5
layerFeedCounts=2,6,4
layerContextCount=0,0,0
layerIndex=0,2,9
output=0,0,0,0,0,0,0,0,1,0,0,0,0,1
outputCount=2
weightIndex=0,14,44
weights=-0.6406225695,0.5654533023,0.0212551472,0.5026912594,-1.8797635185,1.4418808606,-0.3209338054,1.1635726884,0.3831746344,-0.7535529489,-3.4877612296,5.9256344062,-0.0481896256,0.8473414251,-0.0141341549,-0.0102510887,0.0766851629,-0.1011823015,0.5662872172,0.8149263754,-0.726024586,2.0952467487,3.9094034117,-2.3460363405,-0.5181103923,4.46064206,14.291771965,-5.4568058854,-1.2862160222,2.5820348691,-4.3907530145,-1.7067929738,13.9485164929,-3.4997159089,0.9027327785,-1.3303699396,2.2442337538,4.7766992379,-2.2364781133,1.333458041,-2.3707413266,-1.0402972378,6.106999212,1.3044274984
biasActivation=0,1,1
[BASIC:ACTIVATION]
"ActivationTANH"
"ActivationTANH"
"ActivationLinear"
